10000.000000000 0.000000 0.000000 0.000000 0.000000 0.000000 0.000000 1.000000
10000.033333000 0.010368 0.003278 -0.001793 0.002377 -0.004866 -0.001865 0.999984
10000.066666000 0.020694 0.007195 -0.002849 0.004318 -0.009440 -0.004002 0.999938
10000.099999000 0.030304 0.010135 -0.003153 0.005922 -0.013642 -0.005917 0.999872
10000.133332000 0.040840 0.013245 -0.003604 0.007364 -0.018296 -0.008633 0.999768
10000.166665000 0.051364 0.016311 -0.004085 0.008820 -0.022927 -0.011357 0.999634
10000.199998000 0.060835 0.019124 -0.004419 0.009917 -0.027140 -0.014359 0.999479
10000.233331000 0.071656 0.021478 -0.004222 0.010916 -0.031829 -0.017621 0.999278
10000.266664000 0.081296 0.024296 -0.003207 0.011804 -0.036141 -0.021175 0.999053
10000.299997000 0.091136 0.026456 -0.003035 0.012332 -0.039982 -0.023954 0.998837
10000.333330000 0.110586 0.030404 -0.002636 0.013555 -0.048547 -0.031174 0.998242
10000.366663000 0.120391 0.032399 -0.002429 0.014091 -0.052301 -0.033853 0.997958
10000.399996000 0.129144 0.034942 -0.001366 0.014966 -0.056119 -0.037041 0.997624
10000.433329000 0.138912 0.037071 -0.001160 0.015987 -0.060184 -0.039842 0.997264
10000.466662000 0.147484 0.039531 -0.001495 0.017086 -0.063812 -0.042386 0.996915
10000.499995000 0.156106 0.042101 -0.001850 0.018471 -0.067404 -0.044347 0.996569
10000.533328000 0.164537 0.044479 -0.002195 0.019799 -0.070927 -0.046251 0.996212
10000.566661000 0.173160 0.047117 -0.002532 0.021436 -0.074486 -0.047571 0.995856
10000.599994000 0.180519 0.050146 -0.003410 0.023177 -0.077609 -0.048643 0.995527
10000.633327000 0.188964 0.052789 -0.005179 0.025471 -0.081352 -0.049510 0.995129
10000.666660000 0.203261 0.060321 -0.008170 0.031106 -0.087661 -0.048719 0.994472
10000.699993000 0.210237 0.064611 -0.011192 0.034211 -0.090442 -0.047827 0.994164
10000.733326000 0.217210 0.068569 -0.014068 0.037941 -0.093623 -0.047047 0.993772
10000.766659000 0.224166 0.072255 -0.015612 0.041915 -0.096935 -0.046304 0.993329
10000.799992000 0.231508 0.075412 -0.017846 0.045553 -0.099935 -0.045925 0.992889
10000.833325000 0.239799 0.078795 -0.018780 0.049890 -0.103843 -0.046458 0.992255
10000.866658000 0.248125 0.082105 -0.019699 0.054716 -0.107194 -0.047088 0.991614
10000.899991000 0.257020 0.083911 -0.019486 0.059017 -0.110272 -0.049171 0.990929
10000.933324000 0.267046 0.084894 -0.017274 0.063780 -0.114407 -0.052740 0.989981
10000.966657000 0.278405 0.085564 -0.014490 0.068193 -0.118714 -0.057379 0.988921
10000.999990000 0.305278 0.084043 -0.004648 0.078223 -0.127525 -0.071735 0.986140
10001.033323000 0.319877 0.081257 0.002468 0.082715 -0.132059 -0.081369 0.984428
10001.066656000 0.335094 0.076694 0.010719 0.086947 -0.137403 -0.091654 0.982426
10001.099989000 0.350038 0.072520 0.018862 0.091323 -0.142266 -0.102257 0.980288
10001.133322000 0.364365 0.067808 0.026560 0.095068 -0.147392 -0.113159 0.977974
10001.166655000 0.377147 0.063735 0.034272 0.099492 -0.152514 -0.123919 0.975441
10001.199988000 0.389123 0.059375 0.040437 0.103168 -0.157493 -0.134072 0.972922
10001.233321000 0.399003 0.054401 0.045365 0.105952 -0.163068 -0.143936 0.970291
10001.266654000 0.405435 0.049719 0.047593 0.108282 -0.168150 -0.152903 0.967792
10001.299987000 0.409585 0.045331 0.048014 0.109953 -0.173054 -0.160586 0.965492
10001.333320000 0.406659 0.036325 0.039241 0.109856 -0.182291 -0.172867 0.961675
10001.366653000 0.399809 0.033710 0.030129 0.109345 -0.186739 -0.176950 0.960136
10001.399986000 0.390186 0.032159 0.019165 0.107502 -0.190666 -0.180589 0.958894
10001.433319000 0.378294 0.031409 0.006054 0.105666 -0.194011 -0.183328 0.957907
10001.466652000 0.365890 0.028929 -0.008027 0.102649 -0.197334 -0.185144 0.957207
10001.499985000 0.351575 0.028412 -0.022924 0.099545 -0.199980 -0.186388 0.956744
10001.533318000 0.338555 0.027736 -0.038313 0.096011 -0.202344 -0.187333 0.956423
10001.566651000 0.326297 0.028224 -0.053088 0.092830 -0.204076 -0.187589 0.956319
10001.599984000 0.316171 0.029691 -0.067015 0.089800 -0.205251 -0.187543 0.956366
10001.633317000 0.306464 0.031408 -0.079771 0.086871 -0.205915 -0.187318 0.956538
10001.666650000 0.299740 0.035338 -0.098687 0.082285 -0.206325 -0.186482 0.957018
10001.699983000 0.300719 0.038701 -0.104772 0.080893 -0.205485 -0.186327 0.957348
10001.733316000 0.304510 0.041926 -0.108987 0.080623 -0.204340 -0.185704 0.957736
10001.766649000 0.310992 0.044861 -0.111308 0.079736 -0.203569 -0.185354 0.958043
10001.799982000 0.319964 0.048860 -0.111542 0.080071 -0.202851 -0.185022 0.958231
10001.833315000 0.329635 0.052054 -0.111089 0.080207 -0.201470 -0.184906 0.958533
10001.866648000 0.342381 0.054658 -0.109616 0.081049 -0.201188 -0.184925 0.958518
10001.899981000 0.355194 0.057183 -0.106800 0.081610 -0.201196 -0.185082 0.958439
10001.933314000 0.369333 0.059262 -0.103450 0.082115 -0.201942 -0.185506 0.958157
10001.966647000 0.382937 0.060096 -0.099249 0.082887 -0.203470 -0.186059 0.957660
10001.999980000 0.411518 0.059701 -0.090214 0.084634 -0.210282 -0.188253 0.955604
10002.033313000 0.425510 0.058786 -0.085842 0.085618 -0.215310 -0.189421 0.954165
10002.066646000 0.437828 0.056290 -0.080739 0.086040 -0.220254 -0.190649 0.952753
10002.099979000 0.450126 0.053756 -0.076439 0.086672 -0.226440 -0.193012 0.950768
10002.133312000 0.461755 0.049968 -0.071571 0.086977 -0.233010 -0.194732 0.948800
10002.166645000 0.473404 0.046114 -0.066732 0.086966 -0.240289 -0.196375 0.946644
10002.199978000 0.483519 0.040445 -0.061965 0.086176 -0.247019 -0.198453 0.944549
10002.233311000 0.493501 0.035264 -0.056382 0.085401 -0.254801 -0.200754 0.942062
10002.266644000 0.501788 0.028262 -0.051158 0.083592 -0.261371 -0.203029 0.939934
10002.299977000 0.510125 0.021724 -0.046275 0.081804 -0.268442 -0.204650 0.937745
10002.333310000 0.522213 0.006900 -0.033665 0.076165 -0.280617 -0.209749 0.933519
10002.366643000 0.526804 -0.001498 -0.028037 0.072494 -0.285814 -0.211917 0.931744
10002.399976000 0.531216 -0.008713 -0.022232 0.068830 -0.290405 -0.213932 0.930140
10002.433309000 0.533743 -0.016907 -0.015792 0.064858 -0.294910 -0.216592 0.928391
10002.466642000 0.536227 -0.024508 -0.009872 0.061038 -0.298503 -0.218513 0.927050
10002.499975000 0.537683 -0.032317 -0.003896 0.057186 -0.301516 -0.220804 0.925777
10002.533308000 0.538996 -0.039319 0.001503 0.054156 -0.304198 -0.222710 0.924625
10002.566641000 0.539765 -0.044840 0.007059 0.052396 -0.306162 -0.224004 0.923765
10002.599974000 0.540617 -0.051023 0.011843 0.051014 -0.307767 -0.225459 0.922955
10002.633307000 0.540344 -0.055991 0.015548 0.050804 -0.308525 -0.226257 0.922518
10002.666640000 0.540794 -0.063919 0.021497 0.054349 -0.308813 -0.226366 0.922193
10002.699973000 0.540598 -0.066723 0.023860 0.057711 -0.307854 -0.225771 0.922455
10002.733306000 0.540982 -0.067972 0.024976 0.062455 -0.306991 -0.224597 0.922720
10002.766639000 0.540192 -0.068973 0.025763 0.068164 -0.304814 -0.222752 0.923485
10002.799972000 0.540298 -0.069596 0.026373 0.074692 -0.302704 -0.220121 0.924304
10002.833305000 0.540037 -0.069032 0.025922 0.081816 -0.299860 -0.217142 0.925332
10002.866638000 0.540751 -0.068187 0.025372 0.089250 -0.297320 -0.214142 0.926163
10002.899971000 0.540346 -0.066799 0.024264 0.096472 -0.293660 -0.210094 0.927533
10002.933304000 0.540830 -0.065245 0.023064 0.103402 -0.290965 -0.205980 0.928558
10002.966637000 0.540287 -0.063167 0.021457 0.109730 -0.287185 -0.201497 0.929991
10002.999970000 0.540632 -0.057273 0.017368 0.119989 -0.279964 -0.191043 0.933127
10003.033303000 0.540883 -0.054874 0.015510 0.123780 -0.276674 -0.185592 0.934711
10003.066636000 0.540218 -0.052239 0.013306 0.127118 -0.272773 -0.179831 0.936535
10003.099969000 0.540600 -0.050005 0.011432 0.129214 -0.269804 -0.174342 0.938144
10003.133302000 0.541296 -0.048494 0.010200 0.130568 -0.267213 -0.168826 0.939706
10003.166635000 0.541096 -0.047852 0.009670 0.131907 -0.264198 -0.163771 0.941264
10003.199968000 0.541012 -0.047261 0.009141 0.132497 -0.261554 -0.158723 0.942784
10003.233301000 0.541327 -0.048576 0.010279 0.132730 -0.259455 -0.154306 0.944063
10003.266634000 0.540969 -0.050812 0.012109 0.133339 -0.257032 -0.150216 0.945299
10003.299967000 0.540956 -0.054506 0.015122 0.133523 -0.255205 -0.146777 0.946308
10003.333300000 0.541565 -0.069082 0.025904 0.132811 -0.252495 -0.142009 0.947861
10003.366633000 0.541476 -0.078505 0.033184 0.132565 -0.251496 -0.140794 0.948342
10003.399966000 0.541672 -0.088964 0.041009 0.132719 -0.250543 -0.139834 0.948715
10003.433299000 0.543126 -0.099927 0.049427 0.132185 -0.250498 -0.139609 0.948835
10003.466632000 0.544214 -0.109988 0.057106 0.132532 -0.250062 -0.139836 0.948868
10003.499965000 0.546405 -0.120066 0.064889 0.132299 -0.250325 -0.140273 0.948766
10003.533298000 0.548077 -0.128767 0.071399 0.132304 -0.250258 -0.140620 0.948732
10003.566631000 0.550641 -0.134220 0.076079 0.132754 -0.250421 -0.141218 0.948537
10003.599964000 0.554570 -0.137562 0.079355 0.133164 -0.251205 -0.141942 0.948165
10003.633297000 0.558600 -0.137899 0.080309 0.133175 -0.251957 -0.142813 0.947833
10003.666630000 0.569784 -0.127261 0.074271 0.134223 -0.253581 -0.143903 0.947086
10003.699963000 0.577568 -0.115874 0.067210 0.135146 -0.255039 -0.144225 0.946515
10003.733296000 0.584148 -0.101514 0.057659 0.135802 -0.255614 -0.144474 0.946228
10003.766629000 0.591025 -0.084685 0.046331 0.136754 -0.256289 -0.144301 0.945934
10003.799962000 0.597344 -0.066184 0.033766 0.137600 -0.256520 -0.144069 0.945784
10003.833295000 0.603257 -0.046329 0.020079 0.138280 -0.256417 -0.143846 0.945747
10003.866628000 0.607965 -0.025833 0.005954 0.139087 -0.256119 -0.143187 0.945810
10003.899961000 0.611136 -0.006739 -0.007618 0.139046 -0.255361 -0.143109 0.946032
10003.933294000 0.612614 0.011245 -0.021044 0.138812 -0.254201 -0.142594 0.946456
10003.966627000 0.612550 0.028130 -0.033758 0.138915 -0.252255 -0.141903 0.947066
10003.999960000 0.603546 0.055268 -0.054684 0.138074 -0.246480 -0.141348 0.948791
10004.033293000 0.595779 0.064026 -0.062694 0.137393 -0.242601 -0.140636 0.949994
10004.066626000 0.586773 0.068933 -0.068445 0.136051 -0.238861 -0.140451 0.951162
10004.099959000 0.576647 0.072347 -0.072678 0.134927 -0.234589 -0.140152 0.952428
10004.133292000 0.565440 0.072189 -0.074499 0.133449 -0.230527 -0.139964 0.953655
10004.166625000 0.554151 0.069250 -0.074480 0.131839 -0.226464 -0.139761 0.954882
10004.199958000 0.543533 0.063690 -0.072041 0.130169 -0.222839 -0.139617 0.955984
10004.233291000 0.534100 0.054927 -0.067114 0.128459 -0.220066 -0.139978 0.956805
10004.266624000 0.525164 0.044653 -0.060210 0.126971 -0.217506 -0.140027 0.957581
10004.299957000 0.519248 0.031116 -0.051468 0.125062 -0.216502 -0.140332 0.958015
10004.333290000 0.516538 -0.004807 -0.025676 0.121524 -0.219319 -0.141698 0.957629
10004.366623000 0.519214 -0.025656 -0.010064 0.120055 -0.222626 -0.142645 0.956910
10004.399956000 0.523430 -0.048424 0.007333 0.118283 -0.227310 -0.143900 0.955841
10004.433289000 0.529985 -0.071540 0.025178 0.116760 -0.232922 -0.145237 0.954474
10004.466622000 0.538910 -0.095713 0.044178 0.114968 -0.240074 -0.146922 0.952660
10004.499955000 0.547647 -0.119738 0.063197 0.113241 -0.247792 -0.148695 0.950613
10004.533288000 0.556877 -0.141999 0.080887 0.111554 -0.255741 -0.150502 0.948421
10004.566621000 0.567088 -0.163487 0.098071 0.109948 -0.264394 -0.152423 0.945925
10004.599954000 0.575700 -0.183492 0.113992 0.107403 -0.272663 -0.154558 0.943521
10004.633287000 0.584233 -0.200337 0.127545 0.105553 -0.280833 -0.156451 0.941018
10004.666620000 0.596326 -0.224828 0.146981 0.101235 -0.294267 -0.160009 0.936779
10004.699953000 0.599323 -0.231906 0.152681 0.098917 -0.299219 -0.161583 0.935187
10004.733286000 0.600891 -0.237216 0.156751 0.095856 -0.303332 -0.163293 0.933883
10004.766619000 0.602733 -0.240411 0.159404 0.093366 -0.307395 -0.164800 0.932541
10004.799952000 0.603419 -0.243245 0.161575 0.090877 -0.310273 -0.166158 0.931592
10004.833285000 0.603325 -0.246352 0.164041 0.087815 -0.312732 -0.167671 0.930792
10004.866618000 0.604231 -0.249943 0.166844 0.084870 -0.314985 -0.169103 0.930046
10004.899951000 0.604807 -0.255150 0.170873 0.081764 -0.316882 -0.170581 0.929410
10004.933284000 0.606189 -0.262815 0.176711 0.078971 -0.318944 -0.171959 0.928692
10004.966617000 0.610066 -0.274450 0.185580 0.075587 -0.321703 -0.173685 0.927700
10004.999950000 0.620312 -0.308551 0.211974 0.068703 -0.327421 -0.177334 0.925542
10005.033283000 0.627021 -0.331748 0.229814 0.064835 -0.330731 -0.179420 0.924241
10005.066616000 0.635349 -0.357007 0.249458 0.061551 -0.334551 -0.181392 0.922705
10005.099949000 0.644206 -0.383880 0.270334 0.057553 -0.338627 -0.183729 0.921012
10005.133282000 0.653465 -0.411560 0.291966 0.053907 -0.342952 -0.186010 0.919172
10005.166615000 0.662163 -0.437401 0.312211 0.051021 -0.347014 -0.187975 0.917411
10005.199948000 0.670271 -0.461980 0.331367 0.047676 -0.350947 -0.190083 0.915659
10005.233281000 0.677297 -0.483430 0.348144 0.045049 -0.354666 -0.191900 0.913978
10005.266614000 0.684080 -0.500898 0.361739 0.042597 -0.358147 -0.193586 0.912382
10005.299947000 0.687871 -0.512875 0.371097 0.040690 -0.360988 -0.194948 0.911058
10005.333280000 0.689476 -0.518156 0.375162 0.037732 -0.364530 -0.196930 0.909348
10005.366613000 0.687299 -0.511296 0.369979 0.037293 -0.365619 -0.196917 0.908931
10005.399946000 0.683230 -0.499032 0.360394 0.036994 -0.366035 -0.197166 0.908722
10005.433279000 0.678343 -0.484303 0.347694 0.036683 -0.365890 -0.197323 0.908759
10005.466612000 0.672019 -0.465139 0.332803 0.037060 -0.365524 -0.197150 0.908928
10005.499945000 0.665721 -0.446042 0.318078 0.037263 -0.365214 -0.196580 0.909168
10005.533278000 0.658814 -0.425250 0.301956 0.037988 -0.364417 -0.196150 0.909551
10005.566611000 0.652514 -0.406174 0.286998 0.038456 -0.363451 -0.196251 0.909896
10005.599944000 0.646931 -0.389092 0.273763 0.038534 -0.363438 -0.196248 0.909898
10005.633277000 0.642199 -0.374801 0.263923 0.039202 -0.363271 -0.195911 0.910009
10005.666610000 0.637979 -0.361469 0.254656 0.039483 -0.363936 -0.196922 0.909513
10005.699943000 0.638201 -0.362231 0.255401 0.038997 -0.364743 -0.197761 0.909028
10005.733276000 0.639531 -0.366179 0.259731 0.038847 -0.365684 -0.198452 0.908506
10005.766609000 0.641984 -0.373861 0.265766 0.038345 -0.366456 -0.199288 0.908033
10005.799942000 0.645078 -0.383262 0.274259 0.038161 -0.367389 -0.199980 0.907511
10005.833275000 0.648666 -0.394741 0.283331 0.037673 -0.368144 -0.200830 0.907038
10005.866608000 0.652545 -0.406166 0.292241 0.037663 -0.368118 -0.200785 0.907059
10005.899941000 0.656287 -0.417714 0.301283 0.037474 -0.368112 -0.200360 0.907163
10005.933274000 0.659720 -0.428234 0.308261 0.037610 -0.367115 -0.199596 0.907730
10005.966607000 0.662540 -0.437299 0.314100 0.038056 -0.365708 -0.198617 0.908494
10005.999940000 0.664613 -0.444493 0.316247 0.040371 -0.359882 -0.193191 0.911884
10006.033273000 0.664244 -0.443308 0.312909 0.042387 -0.355656 -0.189678 0.914185
10006.066606000 0.663305 -0.439933 0.307915 0.044730 -0.351154 -0.186019 0.916563
10006.099939000 0.661607 -0.434513 0.300190 0.046845 -0.346456 -0.182510 0.918947
10006.133272000 0.659202 -0.426749 0.293122 0.050033 -0.341810 -0.179009 0.921205
10006.166605000 0.656348 -0.417966 0.283890 0.053036 -0.336985 -0.176056 0.923381
10006.199938000 0.653147 -0.407969 0.276193 0.056216 -0.333227 -0.173695 0.925003
10006.233271000 0.649690 -0.396936 0.268832 0.060386 -0.329266 -0.172196 0.926437
10006.266604000 0.646287 -0.386786 0.263358 0.063871 -0.326848 -0.172155 0.927067
10006.299937000 0.642817 -0.375370 0.259553 0.068053 -0.325069 -0.172844 0.927267
10006.333270000 0.636907 -0.356476 0.259658 0.076408 -0.325020 -0.179668 0.925334
10006.366603000 0.634715 -0.348491 0.264684 0.080933 -0.327067 -0.185444 0.923086
10006.399936000 0.633026 -0.341583 0.271645 0.085690 -0.329954 -0.192744 0.920129
10006.433269000 0.631410 -0.335525 0.280457 0.089940 -0.333725 -0.201039 0.916582
10006.466602000 0.629998 -0.329552 0.290649 0.094596 -0.338834 -0.210108 0.912194
10006.499935000 0.628785 -0.324082 0.301458 0.099819 -0.344522 -0.219789 0.907212
10006.533268000 0.627698 -0.319496 0.312788 0.104380 -0.350589 -0.229528 0.901947
10006.566601000 0.626635 -0.314895 0.322837 0.108577 -0.356705 -0.239124 0.896544
10006.599934000 0.625617 -0.310793 0.331808 0.111653 -0.363026 -0.248926 0.890944
10006.633267000 0.624907 -0.306998 0.340283 0.114827 -0.370005 -0.257421 0.885238
10006.666600000 0.623386 -0.300045 0.349862 0.117281 -0.382154 -0.271349 0.875541
10006.699933000 0.622662 -0.297568 0.352478 0.116347 -0.388502 -0.276355 0.871296
10006.733266000 0.621893 -0.295264 0.352855 0.115267 -0.393814 -0.280140 0.867840
10006.766599000 0.621176 -0.292679 0.351851 0.112486 -0.398694 -0.283067 0.865022
10006.799932000 0.620884 -0.291252 0.350588 0.110167 -0.403412 -0.285211 0.862425
10006.833265000 0.620766 -0.290946 0.347924 0.106341 -0.407562 -0.286971 0.860367
10006.866598000 0.620748 -0.290673 0.346493 0.102997 -0.411434 -0.287787 0.858657
10006.899931000 0.621093 -0.292304 0.344097 0.098624 -0.414882 -0.288536 0.857259
10006.933264000 0.621755 -0.294615 0.343529 0.094414 -0.418167 -0.289190 0.855916
10006.966597000 0.623049 -0.298797 0.344418 0.090313 -0.421802 -0.289265 0.854548
10006.999930000 0.627346 -0.312004 0.350900 0.083565 -0.427817 -0.290731 0.851742
10007.033263000 0.630227 -0.320890 0.356664 0.081086 -0.430919 -0.292136 0.849935
10007.066596000 0.632713 -0.331582 0.363643 0.077876 -0.433552 -0.293881 0.848294
10007.099929000 0.636209 -0.342344 0.372059 0.076026 -0.436459 -0.294919 0.846609
10007.133262000 0.640314 -0.354637 0.381747 0.074274 -0.439838 -0.297141 0.844235
10007.166595000 0.644264 -0.366783 0.391221 0.072892 -0.442210 -0.298375 0.842680
10007.199928000 0.648498 -0.379294 0.402195 0.071686 -0.444627 -0.300076 0.840905
10007.233261000 0.652768 -0.392459 0.412430 0.070381 -0.447046 -0.301868 0.839090
10007.266594000 0.656962 -0.404886 0.423374 0.069845 -0.449927 -0.303276 0.837085
10007.299927000 0.660855 -0.416374 0.432363 0.069456 -0.451590 -0.304389 0.835817
10007.333260000 0.669836 -0.436810 0.449965 0.070069 -0.455284 -0.305822 0.833234
10007.366593000 0.673487 -0.445140 0.457842 0.070802 -0.456519 -0.305548 0.832597
10007.399926000 0.677222 -0.453420 0.464497 0.070808 -0.457999 -0.305753 0.831709
10007.433259000 0.679543 -0.460475 0.470146 0.071261 -0.457877 -0.305420 0.831859
10007.466592000 0.682803 -0.467300 0.475641 0.071642 -0.458402 -0.305209 0.831615
10007.499925000 0.685961 -0.473747 0.480821 0.071189 -0.458772 -0.305524 0.831334
10007.533258000 0.687732 -0.479234 0.485179 0.071210 -0.457982 -0.304760 0.832047
10007.566591000 0.688768 -0.485589 0.489964 0.070088 -0.457340 -0.305309 0.832294
10007.599924000 0.690573 -0.491464 0.493305 0.068919 -0.456071 -0.305797 0.832909
10007.633257000 0.690539 -0.497257 0.497577 0.067539 -0.454069 -0.306315 0.833925
10007.666590000 0.689830 -0.510845 0.507358 0.062373 -0.450211 -0.308746 0.835521
10007.699923000 0.688043 -0.518035 0.512246 0.058802 -0.447075 -0.310915 0.836659
10007.733256000 0.686439 -0.525908 0.517739 0.054875 -0.444379 -0.312809 0.837655
10007.766589000 0.684993 -0.533679 0.523198 0.050959 -0.441479 -0.315207 0.838537
10007.799922000 0.682684 -0.542564 0.527885 0.045898 -0.438019 -0.317503 0.839776
10007.833255000 0.680199 -0.550838 0.533493 0.041178 -0.434771 -0.319633 0.840900
10007.866588000 0.677067 -0.559970 0.539711 0.036338 -0.431878 -0.321962 0.841725
10007.899921000 0.674467 -0.567622 0.546052 0.032428 -0.428580 -0.323497 0.842981
10007.933254000 0.672199 -0.576517 0.552151 0.028122 -0.426020 -0.325472 0.843673
10007.966587000 0.669715 -0.584666 0.557719 0.024076 -0.423278 -0.326606 0.844739
10007.999920000 0.666967 -0.601206 0.569267 0.017284 -0.419417 -0.327838 0.846352
10008.033253000 0.666447 -0.608985 0.576156 0.015096 -0.418664 -0.327757 0.846798
10008.066586000 0.665976 -0.616521 0.581576 0.012919 -0.417939 -0.327654 0.847232
10008.099919000 0.666279 -0.623892 0.587157 0.011805 -0.417287 -0.327553 0.847609
10008.133252000 0.667697 -0.631295 0.593863 0.011002 -0.417610 -0.326840 0.847736
10008.166585000 0.669787 -0.637516 0.600066 0.011110 -0.418368 -0.326380 0.847538
10008.199918000 0.672882 -0.643570 0.606202 0.012251 -0.419217 -0.325877 0.847296
10008.233251000 0.675851 -0.649546 0.612407 0.013621 -0.419617 -0.325159 0.847353
10008.266584000 0.680633 -0.654216 0.617855 0.016103 -0.420512 -0.325086 0.846894
10008.299917000 0.685371 -0.659102 0.624691 0.019367 -0.421754 -0.325255 0.846143
10008.333250000 0.699973 -0.667260 0.638233 0.027772 -0.424099 -0.327514 0.843862
10008.366583000 0.708404 -0.670171 0.644311 0.033408 -0.425522 -0.329343 0.842228
10008.399916000 0.717768 -0.673058 0.651740 0.039213 -0.426826 -0.331628 0.840419
10008.433249000 0.727578 -0.677099 0.657665 0.044968 -0.427913 -0.334487 0.838443
10008.466582000 0.739105 -0.679833 0.664183 0.051162 -0.429683 -0.337325 0.836042
10008.499915000 0.750498 -0.682499 0.669367 0.057434 -0.430784 -0.340549 0.833758
10008.533248000 0.762520 -0.687265 0.674763 0.062121 -0.432003 -0.344116 0.831323
10008.566581000 0.774401 -0.691842 0.678782 0.066890 -0.433726 -0.347777 0.828528
10008.599914000 0.786177 -0.697129 0.681985 0.070995 -0.435000 -0.351737 0.825843
10008.633247000 0.799384 -0.703546 0.684920 0.074502 -0.437572 -0.355664 0.822486
10008.666580000 0.825008 -0.719507 0.687239 0.077285 -0.442749 -0.363175 0.816152
10008.699913000 0.837552 -0.729913 0.687032 0.077346 -0.445620 -0.366887 0.812917
10008.733246000 0.850853 -0.739779 0.685423 0.076525 -0.448678 -0.369957 0.809916
10008.766579000 0.863631 -0.751353 0.683543 0.074617 -0.452063 -0.373149 0.806741
10008.799912000 0.876183 -0.762132 0.681171 0.072572 -0.455632 -0.375219 0.803955
10008.833245000 0.888860 -0.772938 0.678804 0.070589 -0.459124 -0.377232 0.801198
10008.866578000 0.900452 -0.783731 0.674908 0.067823 -0.461889 -0.378359 0.799314
10008.899911000 0.912766 -0.793739 0.672022 0.065452 -0.465282 -0.379352 0.797070
10008.933244000 0.924402 -0.801613 0.668727 0.063819 -0.467957 -0.379084 0.795763
10008.966577000 0.936170 -0.809508 0.665449 0.061938 -0.470626 -0.378336 0.794693
10008.999910000 0.958110 -0.820719 0.660179 0.059520 -0.475033 -0.374458 0.794093
10009.033243000 0.969214 -0.823075 0.657510 0.059307 -0.476642 -0.371061 0.794738
10009.066576000 0.978790 -0.824346 0.655243 0.059393 -0.477501 -0.367959 0.795658
10009.099909000 0.988235 -0.825140 0.653488 0.059742 -0.478903 -0.364798 0.796244
10009.133242000 0.998114 -0.823669 0.652813 0.061361 -0.479915 -0.361952 0.796810
10009.166575000 1.006709 -0.821142 0.652272 0.062947 -0.480950 -0.359128 0.797340
10009.199908000 1.015796 -0.817320 0.653574 0.065809 -0.482681 -0.357430 0.796826
10009.233241000 1.023984 -0.812875 0.653896 0.068678 -0.483482 -0.356849 0.796359
10009.266574000 1.030819 -0.808482 0.656743 0.071991 -0.484835 -0.357926 0.794758
10009.299907000 1.038394 -0.802360 0.659599 0.076362 -0.486118 -0.360182 0.792544
10009.333240000 1.051428 -0.788713 0.668039 0.087293 -0.489180 -0.370905 0.784546
10009.366573000 1.056959 -0.782155 0.674170 0.093180 -0.491113 -0.379123 0.778711
10009.399906000 1.063440 -0.774686 0.680792 0.100022 -0.493110 -0.388558 0.771920
10009.433239000 1.068881 -0.767678 0.687314 0.106831 -0.494879 -0.399154 0.764433
10009.466572000 1.075071 -0.759602 0.694856 0.114229 -0.496700 -0.410557 0.756098
10009.499905000 1.081297 -0.751596 0.702492 0.122358 -0.498553 -0.421847 0.747341
10009.533238000 1.088646 -0.743134 0.710077 0.130678 -0.500010 -0.433486 0.738244
10009.566571000 1.096968 -0.734277 0.717928 0.139408 -0.501848 -0.444629 0.728710
10009.599904000 1.105020 -0.726564 0.724056 0.147159 -0.502906 -0.455300 0.719814
10009.633237000 1.115402 -0.718071 0.732287 0.155514 -0.505101 -0.464760 0.710413
10009.666570000 1.139070 -0.701065 0.743826 0.171726 -0.507725 -0.480202 0.694357
10009.699903000 1.153794 -0.693839 0.748507 0.179063 -0.508916 -0.486069 0.687516
10009.733236000 1.170225 -0.685263 0.752375 0.186215 -0.510490 -0.489643 0.681889
10009.766569000 1.187818 -0.677576 0.754840 0.192836 -0.511430 -0.491891 0.677714
10009.799902000 1.208480 -0.670291 0.755477 0.198954 -0.512804 -0.491718 0.675028
10009.833235000 1.231302 -0.662952 0.755099 0.204043 -0.514443 -0.489598 0.673802
10009.866568000 1.256155 -0.656259 0.753183 0.208499 -0.515852 -0.484778 0.674845
10009.899901000 1.284354 -0.649917 0.749666 0.212030 -0.517935 -0.477363 0.677430
