10000.000000000 0.000000 0.000000 0.000000 0.000000 0.000000 0.000000 1.000000
10000.033333000 0.010454 0.003370 -0.001797 0.002401 -0.004892 -0.001859 0.999983
10000.066666000 0.020688 0.007146 -0.002767 0.004309 -0.009430 -0.003975 0.999938
10000.099999000 0.030313 0.010294 -0.003160 0.005967 -0.013636 -0.005885 0.999872
10000.133332000 0.040717 0.013301 -0.003675 0.007380 -0.018261 -0.008657 0.999769
10000.166665000 0.051197 0.016055 -0.004025 0.008761 -0.022867 -0.011367 0.999636
10000.199998000 0.060958 0.019174 -0.004428 0.009941 -0.027173 -0.014365 0.999478
10000.233331000 0.071593 0.021269 -0.004171 0.010880 -0.031796 -0.017632 0.999280
10000.266664000 0.081137 0.024149 -0.003164 0.011794 -0.036077 -0.021197 0.999055
10000.299997000 0.090852 0.026001 -0.003001 0.012222 -0.039882 -0.024014 0.998841
10000.333330000 0.110291 0.029864 -0.002610 0.013432 -0.048444 -0.031247 0.998247
10000.366663000 0.120094 0.031548 -0.002340 0.013881 -0.052196 -0.033924 0.997964
10000.399996000 0.128919 0.034376 -0.001341 0.014842 -0.056031 -0.037111 0.997629
10000.433329000 0.138676 0.036473 -0.001022 0.015882 -0.060088 -0.039950 0.997267
10000.466662000 0.147321 0.039248 -0.001420 0.017061 -0.063732 -0.042468 0.996917
10000.499995000 0.155678 0.041452 -0.001869 0.018346 -0.067252 -0.044486 0.996575
10000.533328000 0.164248 0.043846 -0.002133 0.019687 -0.070815 -0.046369 0.996217
10000.566661000 0.172897 0.046522 -0.002568 0.021323 -0.074386 -0.047703 0.995860
10000.599994000 0.180303 0.049497 -0.003432 0.023054 -0.077517 -0.048769 0.995531
10000.633327000 0.188588 0.052215 -0.005187 0.025379 -0.081217 -0.049642 0.995136
10000.666660000 0.203039 0.059449 -0.008294 0.030932 -0.087570 -0.048847 0.994479
10000.699993000 0.210183 0.063829 -0.011252 0.034080 -0.090396 -0.047944 0.994167
10000.733326000 0.217189 0.067917 -0.014206 0.037831 -0.093578 -0.047151 0.993775
10000.766659000 0.224155 0.071309 -0.015780 0.041740 -0.096893 -0.046440 0.993334
10000.799992000 0.231727 0.074358 -0.017856 0.045384 -0.099956 -0.046049 0.992889
10000.833325000 0.239900 0.077658 -0.018878 0.049710 -0.103827 -0.046596 0.992259
10000.866658000 0.248240 0.080785 -0.019847 0.054478 -0.107187 -0.047251 0.991620
10000.899991000 0.257037 0.082357 -0.019519 0.058728 -0.110237 -0.049370 0.990940
10000.933324000 0.267228 0.083601 -0.017275 0.063568 -0.114426 -0.052917 0.989983
10000.966657000 0.278828 0.083971 -0.014441 0.067913 -0.118806 -0.057577 0.988918
10000.999990000 0.305642 0.082514 -0.004834 0.077973 -0.127594 -0.071955 0.986135
10001.033323000 0.320278 0.079342 0.002289 0.082363 -0.132143 -0.081608 0.984426
10001.066656000 0.335389 0.074680 0.010360 0.086544 -0.137466 -0.091921 0.982427
10001.099989000 0.350170 0.070717 0.018687 0.090994 -0.142299 -0.102493 0.980289
10001.133322000 0.364587 0.066652 0.026394 0.094931 -0.147410 -0.113384 0.977958
10001.166655000 0.377347 0.062352 0.034252 0.099316 -0.152544 -0.124139 0.975426
10001.199988000 0.389408 0.057392 0.040323 0.102840 -0.157568 -0.134388 0.972901
10001.233321000 0.398703 0.053009 0.044954 0.105743 -0.162942 -0.144174 0.970300
10001.266654000 0.405034 0.048150 0.047178 0.108009 -0.168031 -0.153192 0.967797
10001.299987000 0.409601 0.043509 0.047769 0.109654 -0.173056 -0.160881 0.965476
10001.333320000 0.406234 0.034563 0.038768 0.109525 -0.182177 -0.173189 0.961676
10001.366653000 0.399284 0.032063 0.029722 0.109043 -0.186582 -0.177205 0.960154
10001.399986000 0.389163 0.030389 0.018504 0.107158 -0.190367 -0.180932 0.958927
10001.433319000 0.377353 0.029528 0.005499 0.105308 -0.193749 -0.183742 0.957920
10001.466652000 0.364796 0.026887 -0.008683 0.102222 -0.197056 -0.185547 0.957231
10001.499985000 0.350579 0.026339 -0.023349 0.099114 -0.199727 -0.186776 0.956766
10001.533318000 0.337487 0.025917 -0.038816 0.095633 -0.202064 -0.187708 0.956447
10001.566651000 0.325204 0.026160 -0.053695 0.092361 -0.203786 -0.187958 0.956354
10001.599984000 0.314882 0.027687 -0.067701 0.089335 -0.204925 -0.187943 0.956401
10001.633317000 0.305498 0.029047 -0.080274 0.086328 -0.205691 -0.187714 0.956557
10001.666650000 0.298520 0.033011 -0.099357 0.081734 -0.206028 -0.186894 0.957049
10001.699983000 0.299332 0.036324 -0.105627 0.080304 -0.205142 -0.186727 0.957393
10001.733316000 0.303185 0.039712 -0.109633 0.080093 -0.204007 -0.186070 0.957781
10001.766649000 0.309762 0.042610 -0.111993 0.079192 -0.203272 -0.185729 0.958078
10001.799982000 0.318828 0.046970 -0.112116 0.079643 -0.202557 -0.185396 0.958257
10001.833315000 0.328498 0.050386 -0.111632 0.079846 -0.201165 -0.185290 0.958553
10001.866648000 0.341173 0.053093 -0.110172 0.080708 -0.200856 -0.185304 0.958543
10001.899981000 0.354044 0.055627 -0.107361 0.081271 -0.200888 -0.185466 0.958458
10001.933314000 0.368385 0.057805 -0.104032 0.081813 -0.201669 -0.185929 0.958158
10001.966647000 0.381999 0.058443 -0.099834 0.082530 -0.203218 -0.186452 0.957668
10001.999980000 0.410613 0.057837 -0.090940 0.084222 -0.210044 -0.188652 0.955614
10002.033313000 0.424627 0.056945 -0.086488 0.085218 -0.215073 -0.189791 0.954181
10002.066646000 0.437014 0.054181 -0.081399 0.085578 -0.220048 -0.191034 0.952765
10002.099979000 0.449291 0.051717 -0.077109 0.086219 -0.226226 -0.193391 0.950783
10002.133312000 0.460996 0.047749 -0.072220 0.086491 -0.232821 -0.195129 0.948809
10002.166645000 0.472833 0.043426 -0.067278 0.086368 -0.240181 -0.196780 0.946642
10002.199978000 0.482860 0.037908 -0.062510 0.085619 -0.246886 -0.198894 0.944541
10002.233311000 0.492801 0.032880 -0.057068 0.084875 -0.254636 -0.201194 0.942060
10002.266644000 0.501392 0.025435 -0.051399 0.082984 -0.261324 -0.203473 0.939905
10002.299977000 0.509947 0.018847 -0.046596 0.081183 -0.268448 -0.205160 0.937686
10002.333310000 0.522152 0.003794 -0.033829 0.075497 -0.280666 -0.210282 0.933439
10002.366643000 0.526678 -0.004656 -0.028081 0.071803 -0.285858 -0.212455 0.931661
10002.399976000 0.531313 -0.011739 -0.022253 0.068196 -0.290494 -0.214514 0.930025
10002.433309000 0.533584 -0.019475 -0.015852 0.064327 -0.294899 -0.217167 0.928297
10002.466642000 0.536125 -0.027291 -0.009825 0.060433 -0.298545 -0.219092 0.926940
10002.499975000 0.537556 -0.034978 -0.003849 0.056626 -0.301533 -0.221405 0.925663
10002.533308000 0.538927 -0.042145 0.001539 0.053552 -0.304242 -0.223338 0.924494
10002.566641000 0.539821 -0.047975 0.007229 0.051716 -0.306265 -0.224661 0.923610
10002.599974000 0.540541 -0.053862 0.011942 0.050400 -0.307819 -0.226116 0.922810
10002.633307000 0.540279 -0.058988 0.015768 0.050159 -0.308609 -0.226937 0.922358
10002.666640000 0.541057 -0.067371 0.021823 0.053605 -0.309006 -0.227087 0.921994
10002.699973000 0.540743 -0.070151 0.024155 0.056966 -0.308021 -0.226462 0.922276
10002.733306000 0.541143 -0.071289 0.024997 0.061735 -0.307130 -0.225307 0.922549
10002.766639000 0.540292 -0.072499 0.025941 0.067399 -0.304985 -0.223479 0.923309
10002.799972000 0.540317 -0.073110 0.026558 0.073930 -0.302868 -0.220842 0.924140
10002.833305000 0.540082 -0.072622 0.026137 0.081046 -0.300046 -0.217890 0.925164
10002.866638000 0.540829 -0.071673 0.025760 0.088518 -0.297530 -0.214850 0.926002
10002.899971000 0.540499 -0.070165 0.024779 0.095789 -0.293895 -0.210758 0.927379
10002.933304000 0.541101 -0.068859 0.023581 0.102666 -0.291253 -0.206654 0.928399
10002.966637000 0.540571 -0.066657 0.022269 0.109043 -0.287512 -0.202127 0.929834
10002.999970000 0.540814 -0.060516 0.018056 0.119373 -0.280242 -0.191642 0.932999
10003.033303000 0.541157 -0.058165 0.016249 0.123152 -0.276992 -0.186196 0.934580
10003.066636000 0.540425 -0.055391 0.014031 0.126523 -0.273067 -0.180420 0.936416
10003.099969000 0.540680 -0.053103 0.012239 0.128644 -0.270081 -0.174868 0.938045
10003.133302000 0.541419 -0.051555 0.010980 0.130017 -0.267498 -0.169368 0.939604
10003.166635000 0.541374 -0.050908 0.010567 0.131369 -0.264521 -0.164298 0.941157
10003.199968000 0.541188 -0.050287 0.009941 0.131947 -0.261850 -0.159221 0.942695
10003.233301000 0.541784 -0.051503 0.011243 0.132228 -0.259818 -0.154831 0.943948
10003.266634000 0.541499 -0.053878 0.013028 0.132797 -0.257422 -0.150760 0.945183
10003.299967000 0.541433 -0.057650 0.016038 0.132966 -0.255585 -0.147328 0.946198
10003.333300000 0.542301 -0.072675 0.026787 0.132134 -0.252960 -0.142627 0.947739
10003.366633000 0.542218 -0.082074 0.034220 0.131899 -0.251977 -0.141390 0.948219
10003.399966000 0.542233 -0.092240 0.041967 0.132138 -0.250955 -0.140426 0.948600
10003.433299000 0.544074 -0.103937 0.050487 0.131411 -0.251051 -0.140244 0.948703
10003.466632000 0.545053 -0.114008 0.057992 0.131758 -0.250584 -0.140504 0.948739
10003.499965000 0.547463 -0.124217 0.065980 0.131496 -0.250936 -0.140978 0.948612
10003.533298000 0.549370 -0.133409 0.072588 0.131381 -0.250959 -0.141362 0.948565
10003.566631000 0.551776 -0.138425 0.077316 0.131962 -0.251054 -0.141942 0.948372
10003.599964000 0.555823 -0.141804 0.080668 0.132389 -0.251884 -0.142714 0.947977
10003.633297000 0.560028 -0.142363 0.081744 0.132328 -0.252716 -0.143555 0.947637
10003.666630000 0.571285 -0.131710 0.075749 0.133408 -0.254358 -0.144636 0.946882
10003.699963000 0.578931 -0.119794 0.068831 0.134472 -0.255761 -0.144898 0.946313
10003.733296000 0.585647 -0.105364 0.059396 0.135166 -0.256376 -0.145127 0.946013
10003.766629000 0.592823 -0.088673 0.048078 0.136100 -0.257116 -0.144984 0.945700
10003.799962000 0.599075 -0.069902 0.035651 0.137032 -0.257334 -0.144730 0.945545
10003.833295000 0.605176 -0.049956 0.021882 0.137732 -0.257255 -0.144468 0.945504
10003.866628000 0.610113 -0.029387 0.007907 0.138569 -0.257007 -0.143857 0.945543
10003.899961000 0.613235 -0.010020 -0.005532 0.138614 -0.256220 -0.143694 0.945774
10003.933294000 0.614596 0.008079 -0.018951 0.138398 -0.255034 -0.143172 0.946206
10003.966627000 0.614525 0.025019 -0.031412 0.138525 -0.253101 -0.142420 0.946820
10003.999960000 0.605443 0.052428 -0.052709 0.137721 -0.247261 -0.141871 0.948561
10004.033293000 0.597664 0.060689 -0.060752 0.136905 -0.243404 -0.141179 0.949779
10004.066626000 0.588781 0.065602 -0.066256 0.135582 -0.239703 -0.140996 0.950936
10004.099959000 0.578319 0.069344 -0.070745 0.134504 -0.235322 -0.140641 0.952235
10004.133292000 0.567090 0.069172 -0.072619 0.133037 -0.231250 -0.140499 0.953459
10004.166625000 0.555538 0.066425 -0.072529 0.131458 -0.227127 -0.140255 0.954704
10004.199958000 0.544578 0.060912 -0.070671 0.129750 -0.223381 -0.140113 0.955842
10004.233291000 0.535656 0.051346 -0.065307 0.127855 -0.220810 -0.140508 0.956637
10004.266624000 0.526467 0.041546 -0.058829 0.126434 -0.218142 -0.140571 0.957428
10004.299957000 0.520284 0.028114 -0.050215 0.124535 -0.217069 -0.140859 0.957878
10004.333290000 0.517611 -0.008082 -0.024355 0.120909 -0.219922 -0.142259 0.957485
10004.366623000 0.520078 -0.028832 -0.008714 0.119487 -0.223176 -0.143224 0.956766
10004.399956000 0.524334 -0.051835 0.008640 0.117652 -0.227880 -0.144518 0.955690
10004.433289000 0.530688 -0.074817 0.026629 0.116180 -0.233453 -0.145831 0.954324
10004.466622000 0.539836 -0.099052 0.045705 0.114375 -0.240684 -0.147564 0.952478
10004.499955000 0.548564 -0.123294 0.064852 0.112590 -0.248422 -0.149325 0.950427
10004.533288000 0.557827 -0.145694 0.082536 0.110862 -0.256401 -0.151148 0.948221
10004.566621000 0.567897 -0.166920 0.099715 0.109327 -0.265018 -0.153030 0.945724
10004.599954000 0.576570 -0.187071 0.115833 0.106756 -0.273330 -0.155214 0.943294
10004.633287000 0.585167 -0.203848 0.129600 0.104932 -0.281531 -0.157071 0.940775
10004.666620000 0.597278 -0.228400 0.149074 0.100602 -0.294996 -0.160655 0.936508
10004.699953000 0.600268 -0.235170 0.154739 0.098371 -0.299914 -0.162202 0.934915
10004.733286000 0.601910 -0.240853 0.158894 0.095201 -0.304079 -0.163930 0.933595
10004.766619000 0.603777 -0.243907 0.161719 0.092762 -0.308158 -0.165430 0.932237
10004.799952000 0.604577 -0.246910 0.163878 0.090228 -0.311071 -0.166830 0.931269
10004.833285000 0.604476 -0.250040 0.166485 0.087171 -0.313546 -0.168373 0.930452
10004.866618000 0.605509 -0.253604 0.169206 0.084219 -0.315827 -0.169811 0.929690
10004.899951000 0.606396 -0.259016 0.173379 0.081045 -0.317825 -0.171308 0.929017
10004.933284000 0.607797 -0.266611 0.179282 0.078277 -0.319895 -0.172692 0.928287
10004.966617000 0.611469 -0.278420 0.188119 0.074817 -0.322631 -0.174389 0.927308
10004.999950000 0.621787 -0.312546 0.214683 0.067942 -0.328402 -0.178092 0.925105
10005.033283000 0.628278 -0.335411 0.232546 0.064178 -0.331646 -0.180161 0.923815
10005.066616000 0.636598 -0.360984 0.252381 0.060796 -0.335528 -0.182128 0.922255
10005.099949000 0.645318 -0.387731 0.273387 0.056826 -0.339608 -0.184447 0.920552
10005.133282000 0.654468 -0.415345 0.295059 0.053218 -0.343919 -0.186759 0.918699
10005.166615000 0.662978 -0.441247 0.315214 0.050293 -0.347974 -0.188740 0.916931
10005.199948000 0.670890 -0.465500 0.334440 0.047040 -0.351862 -0.190808 0.915190
10005.233281000 0.677779 -0.486965 0.351284 0.044393 -0.355563 -0.192573 0.913521
10005.266614000 0.684559 -0.504280 0.365015 0.042010 -0.359085 -0.194284 0.911892
10005.299947000 0.688280 -0.516078 0.374223 0.040120 -0.361885 -0.195610 0.910586
10005.333280000 0.689848 -0.521395 0.378433 0.037168 -0.365454 -0.197606 0.908853
10005.366613000 0.687685 -0.514502 0.373123 0.036718 -0.366519 -0.197572 0.908450
10005.399946000 0.683692 -0.502242 0.363445 0.036394 -0.366925 -0.197800 0.908249
10005.433279000 0.678772 -0.487489 0.350605 0.036075 -0.366733 -0.197948 0.908307
10005.466612000 0.672326 -0.468123 0.335647 0.036496 -0.366319 -0.197755 0.908500
10005.499945000 0.666026 -0.448829 0.320487 0.036698 -0.365924 -0.197120 0.908788
10005.533278000 0.659174 -0.428216 0.304321 0.037342 -0.365144 -0.196684 0.909171
10005.566611000 0.652954 -0.409134 0.289302 0.037797 -0.364161 -0.196746 0.909532
10005.599944000 0.647219 -0.391763 0.275941 0.037956 -0.364079 -0.196761 0.909555
10005.633277000 0.642542 -0.377492 0.266101 0.038607 -0.363917 -0.196408 0.909669
10005.666610000 0.638119 -0.364001 0.256676 0.038910 -0.364498 -0.197372 0.909215
10005.699943000 0.638542 -0.364769 0.257435 0.038410 -0.365347 -0.198194 0.908716
10005.733276000 0.639969 -0.368747 0.261836 0.038264 -0.366317 -0.198894 0.908179
10005.766609000 0.642518 -0.376464 0.267816 0.037750 -0.367112 -0.199742 0.907693
10005.799942000 0.645557 -0.385989 0.276409 0.037532 -0.368086 -0.200468 0.907147
10005.833275000 0.649243 -0.397271 0.285519 0.037094 -0.368849 -0.201292 0.906673
10005.866608000 0.652978 -0.408640 0.294576 0.037094 -0.368836 -0.201241 0.906690
10005.899941000 0.656883 -0.420251 0.303624 0.036892 -0.368873 -0.200827 0.906775
10005.933274000 0.660212 -0.430702 0.310656 0.037055 -0.367865 -0.200050 0.907349
10005.966607000 0.663137 -0.439962 0.316427 0.037407 -0.366494 -0.199072 0.908104
10005.999940000 0.665315 -0.446801 0.318523 0.039831 -0.360671 -0.193651 0.911498
10006.033273000 0.664699 -0.445458 0.315063 0.041863 -0.356369 -0.190110 0.913842
10006.066606000 0.663643 -0.441925 0.310031 0.044257 -0.351815 -0.186427 0.916249
10006.099939000 0.661971 -0.436613 0.302276 0.046334 -0.347122 -0.182925 0.918639
10006.133272000 0.659435 -0.428766 0.294981 0.049504 -0.342412 -0.179371 0.920939
10006.166605000 0.656492 -0.420309 0.285702 0.052402 -0.337575 -0.176448 0.923127
10006.199938000 0.653181 -0.410077 0.277853 0.055640 -0.333761 -0.174065 0.924775
10006.233271000 0.649619 -0.398955 0.270448 0.059820 -0.329754 -0.172503 0.926243
10006.266604000 0.646369 -0.388751 0.264958 0.063326 -0.327361 -0.172472 0.926865
10006.299937000 0.642869 -0.377212 0.261088 0.067549 -0.325561 -0.173151 0.927074
10006.333270000 0.636987 -0.358136 0.261097 0.075932 -0.325497 -0.179889 0.925163
10006.366603000 0.634885 -0.350597 0.266165 0.080324 -0.327610 -0.185664 0.922903
10006.399936000 0.633225 -0.343226 0.273197 0.085237 -0.330494 -0.192948 0.919935
10006.433269000 0.631458 -0.337687 0.282103 0.089310 -0.334299 -0.201176 0.916404
10006.466602000 0.630015 -0.331438 0.292310 0.094050 -0.339388 -0.210208 0.912021
10006.499935000 0.628843 -0.325830 0.302972 0.099297 -0.345072 -0.219874 0.907039
10006.533268000 0.627560 -0.321757 0.314540 0.103708 -0.351213 -0.229585 0.901768
10006.566601000 0.626539 -0.317514 0.324365 0.107728 -0.357340 -0.239094 0.896402
10006.599934000 0.625756 -0.313144 0.333508 0.110921 -0.363724 -0.248895 0.890759
10006.633267000 0.624578 -0.309544 0.342189 0.114023 -0.370690 -0.257361 0.885072
10006.666600000 0.623334 -0.302427 0.351551 0.116509 -0.382858 -0.271212 0.875379
10006.699933000 0.622427 -0.300306 0.354493 0.115462 -0.389260 -0.276136 0.871145
10006.733266000 0.621527 -0.298019 0.355140 0.114424 -0.394602 -0.279935 0.867659
10006.766599000 0.620684 -0.295254 0.354180 0.111706 -0.399445 -0.282831 0.864854
10006.799932000 0.620226 -0.293724 0.352843 0.109398 -0.404111 -0.284945 0.862283
10006.833265000 0.620016 -0.293382 0.349887 0.105522 -0.408180 -0.286632 0.860289
10006.866598000 0.620056 -0.293173 0.348402 0.102160 -0.412063 -0.287452 0.858568
10006.899931000 0.620285 -0.294685 0.345967 0.097826 -0.415468 -0.288238 0.857167
10006.933264000 0.620994 -0.297349 0.345447 0.093517 -0.418802 -0.288931 0.855791
10006.966597000 0.622255 -0.301507 0.346253 0.089418 -0.422393 -0.289003 0.854439
10006.999930000 0.626514 -0.315021 0.353025 0.082575 -0.428490 -0.290452 0.851596
10007.033263000 0.629392 -0.323948 0.358734 0.080079 -0.431583 -0.291872 0.849785
10007.066596000 0.631886 -0.334609 0.365770 0.076859 -0.434228 -0.293600 0.848138
10007.099929000 0.635461 -0.345336 0.374131 0.075017 -0.437131 -0.294637 0.846450
10007.133262000 0.639508 -0.357790 0.384031 0.073238 -0.440554 -0.296867 0.844048
10007.166595000 0.643350 -0.369742 0.393630 0.071914 -0.442916 -0.298106 0.842488
10007.199928000 0.647587 -0.382280 0.404768 0.070700 -0.445354 -0.299795 0.840705
10007.233261000 0.651836 -0.395422 0.414856 0.069381 -0.447749 -0.301588 0.838899
10007.266594000 0.655936 -0.407870 0.426065 0.068871 -0.450664 -0.303020 0.836862
10007.299927000 0.659906 -0.419446 0.435148 0.068468 -0.452358 -0.304142 0.835573
10007.333260000 0.668775 -0.439602 0.452720 0.069146 -0.456017 -0.305549 0.833011
10007.366593000 0.672259 -0.447940 0.460796 0.069887 -0.457257 -0.305298 0.832361
10007.399926000 0.675939 -0.456537 0.467923 0.069852 -0.458821 -0.305518 0.831422
10007.433259000 0.678364 -0.463381 0.473713 0.070387 -0.458727 -0.305180 0.831553
10007.466592000 0.681633 -0.470088 0.479241 0.070790 -0.459266 -0.304951 0.831305
10007.499925000 0.684892 -0.476656 0.484518 0.070330 -0.459689 -0.305317 0.830976
10007.533258000 0.686564 -0.482225 0.489148 0.070340 -0.458951 -0.304573 0.831656
10007.566591000 0.687507 -0.488588 0.493994 0.069219 -0.458307 -0.305125 0.831903
10007.599924000 0.689460 -0.494529 0.497319 0.068046 -0.457069 -0.305637 0.832492
10007.633257000 0.689288 -0.500511 0.501868 0.066626 -0.455118 -0.306198 0.833469
10007.666590000 0.688619 -0.513900 0.511428 0.061461 -0.451201 -0.308595 0.835110
10007.699923000 0.686833 -0.521176 0.516177 0.057858 -0.448055 -0.310798 0.836244
10007.733256000 0.685147 -0.529065 0.521899 0.053908 -0.445393 -0.312689 0.837224
10007.766589000 0.683752 -0.536850 0.527136 0.050005 -0.442462 -0.315144 0.838100
10007.799922000 0.681356 -0.545958 0.531930 0.044842 -0.439025 -0.317450 0.839328
10007.833255000 0.678767 -0.554242 0.537595 0.040120 -0.435781 -0.319587 0.840446
10007.866588000 0.675572 -0.563459 0.543588 0.035221 -0.432840 -0.321933 0.841289
10007.899921000 0.672984 -0.571190 0.550077 0.031288 -0.429579 -0.323493 0.842517
10007.933254000 0.670685 -0.579996 0.556111 0.027011 -0.427000 -0.325504 0.843201
10007.966587000 0.668112 -0.588323 0.561932 0.022926 -0.424307 -0.326661 0.844234
10007.999920000 0.665240 -0.605096 0.573545 0.016022 -0.420453 -0.327947 0.845821
10008.033253000 0.664628 -0.612635 0.580447 0.013905 -0.419664 -0.327873 0.846279
10008.066586000 0.664202 -0.620403 0.585970 0.011658 -0.418997 -0.327812 0.846667
10008.099919000 0.664468 -0.627751 0.591586 0.010561 -0.418339 -0.327741 0.847034
10008.133252000 0.665820 -0.635148 0.598436 0.009771 -0.418690 -0.327045 0.847139
10008.166585000 0.668052 -0.641173 0.604408 0.009949 -0.419406 -0.326569 0.846967
10008.199918000 0.671107 -0.647370 0.610678 0.011059 -0.420306 -0.326095 0.846689
10008.233251000 0.674233 -0.653260 0.616975 0.012461 -0.420746 -0.325354 0.846736
10008.266584000 0.678986 -0.657974 0.622472 0.014941 -0.421666 -0.325283 0.846265
10008.299917000 0.683679 -0.662945 0.629515 0.018190 -0.422959 -0.325459 0.845489
10008.333250000 0.698266 -0.671067 0.642975 0.026600 -0.425294 -0.327704 0.843224
10008.366583000 0.706726 -0.673972 0.649099 0.032252 -0.426740 -0.329521 0.841587
10008.399916000 0.716122 -0.676897 0.656586 0.038053 -0.428076 -0.331798 0.839769
10008.433249000 0.725779 -0.681000 0.662537 0.043781 -0.429159 -0.334651 0.837803
10008.466582000 0.737461 -0.683714 0.669097 0.050004 -0.430973 -0.337470 0.835390
10008.499915000 0.748727 -0.686539 0.674276 0.056215 -0.432075 -0.340682 0.833119
10008.533248000 0.760744 -0.691436 0.679828 0.060867 -0.433352 -0.344237 0.830664
10008.566581000 0.772744 -0.696179 0.683989 0.065584 -0.435137 -0.347848 0.827862
10008.599914000 0.784770 -0.701409 0.687400 0.069785 -0.436497 -0.351810 0.825124
10008.633247000 0.798031 -0.707784 0.690524 0.073356 -0.439127 -0.355738 0.821728
10008.666580000 0.823616 -0.723793 0.692801 0.076125 -0.444284 -0.363210 0.815411
10008.699913000 0.836145 -0.734321 0.692542 0.076154 -0.447141 -0.366941 0.812170
10008.733246000 0.849433 -0.744331 0.690881 0.075288 -0.450183 -0.370011 0.809171
10008.766579000 0.862009 -0.756108 0.688972 0.073279 -0.453515 -0.373195 0.806027
10008.799912000 0.874600 -0.766965 0.686553 0.071224 -0.457076 -0.375284 0.803225
10008.833245000 0.887210 -0.777686 0.684233 0.069322 -0.460534 -0.377336 0.800450
10008.866578000 0.898755 -0.788452 0.680381 0.066588 -0.463284 -0.378482 0.798552
10008.899911000 0.910827 -0.798743 0.677342 0.064096 -0.466612 -0.379486 0.796339
10008.933244000 0.922457 -0.806759 0.674097 0.062437 -0.469281 -0.379241 0.795018
10008.966577000 0.934169 -0.814552 0.670592 0.060590 -0.471866 -0.378513 0.793977
10008.999910000 0.956200 -0.825723 0.665220 0.058206 -0.476232 -0.374658 0.793377
10009.033243000 0.967236 -0.828226 0.662756 0.057987 -0.477875 -0.371289 0.793988
10009.066576000 0.976962 -0.829471 0.660248 0.058073 -0.478691 -0.368163 0.794946
10009.099909000 0.986426 -0.830282 0.658701 0.058427 -0.480133 -0.364978 0.795518
10009.133242000 0.996330 -0.828886 0.658047 0.060035 -0.481160 -0.362127 0.796081
10009.166575000 1.004847 -0.826477 0.657823 0.061599 -0.482253 -0.359289 0.796586
10009.199908000 1.014207 -0.822613 0.659041 0.064496 -0.483998 -0.357568 0.796073
10009.233241000 1.022402 -0.818048 0.659596 0.067415 -0.484859 -0.356967 0.795576
10009.266574000 1.029293 -0.813753 0.662521 0.070716 -0.486248 -0.358029 0.793963
10009.299907000 1.036864 -0.807778 0.665190 0.075028 -0.487504 -0.360267 0.791782
10009.333240000 1.049975 -0.794148 0.673650 0.085975 -0.490609 -0.370948 0.783779
10009.366573000 1.055583 -0.787660 0.679887 0.091872 -0.492589 -0.379160 0.777916
10009.399906000 1.062058 -0.780211 0.686528 0.098733 -0.494622 -0.388562 0.771116
10009.433239000 1.067459 -0.773330 0.693061 0.105498 -0.496416 -0.399116 0.763642
10009.466572000 1.073638 -0.765389 0.700496 0.112863 -0.498262 -0.410496 0.755308
10009.499905000 1.079792 -0.757336 0.708098 0.121022 -0.500112 -0.421772 0.746559
10009.533238000 1.087194 -0.748985 0.715521 0.129322 -0.501572 -0.433412 0.737465
10009.566571000 1.096159 -0.739428 0.723789 0.138474 -0.503501 -0.444529 0.727809
10009.599904000 1.102875 -0.732865 0.728692 0.145570 -0.504339 -0.455243 0.719170
10009.633237000 1.113491 -0.724298 0.736710 0.153917 -0.506535 -0.464635 0.709821
10009.666570000 1.137205 -0.707213 0.748210 0.170205 -0.509197 -0.480033 0.693770
10009.699903000 1.151897 -0.700192 0.752783 0.177458 -0.510398 -0.485875 0.686970
10009.733236000 1.168477 -0.691533 0.756608 0.184672 -0.511974 -0.489440 0.681342
10009.766569000 1.185929 -0.684088 0.759463 0.191299 -0.512998 -0.491698 0.677105
10009.799902000 1.206698 -0.676890 0.759900 0.197371 -0.514365 -0.491506 0.674459
10009.833235000 1.229647 -0.669568 0.759433 0.202469 -0.516000 -0.489374 0.673248
10009.866568000 1.254712 -0.662935 0.757496 0.206918 -0.517418 -0.484528 0.674311
10009.899901000 1.282841 -0.656613 0.753997 0.210451 -0.519475 -0.477115 0.676918
